FANN_FLO_2.1
num_layers=3
learning_rate=0.700000
connection_rate=1.000000
network_type=0
learning_momentum=0.000000
training_algorithm=2
train_error_function=1
train_stop_function=0
cascade_output_change_fraction=0.010000
quickprop_decay=-0.000100
quickprop_mu=1.750000
rprop_increase_factor=1.200000
rprop_decrease_factor=0.500000
rprop_delta_min=0.000000
rprop_delta_max=50.000000
rprop_delta_zero=0.100000
cascade_output_stagnation_epochs=12
cascade_candidate_change_fraction=0.010000
cascade_candidate_stagnation_epochs=12
cascade_max_out_epochs=150
cascade_min_out_epochs=50
cascade_max_cand_epochs=150
cascade_min_cand_epochs=50
cascade_num_candidate_groups=2
bit_fail_limit=3.49999999999999977796e-01
cascade_candidate_limit=1.00000000000000000000e+03
cascade_weight_multiplier=4.00000000000000022204e-01
cascade_activation_functions_count=10
cascade_activation_functions=3 5 7 8 10 11 14 15 16 17 
cascade_activation_steepnesses_count=4
cascade_activation_steepnesses=2.50000000000000000000e-01 5.00000000000000000000e-01 7.50000000000000000000e-01 1.00000000000000000000e+00 
layer_sizes=4 31 5 
scale_included=0
neurons (num_inputs, activation_function, activation_steepness)=(0, 0, 0.00000000000000000000e+00) (0, 0, 0.00000000000000000000e+00) (0, 0, 0.00000000000000000000e+00) (0, 0, 0.00000000000000000000e+00) (4, 4, 5.00000000000000000000e-01) (4, 4, 5.00000000000000000000e-01) (4, 4, 5.00000000000000000000e-01) (4, 4, 5.00000000000000000000e-01) (4, 4, 5.00000000000000000000e-01) (4, 4, 5.00000000000000000000e-01) (4, 4, 5.00000000000000000000e-01) (4, 4, 5.00000000000000000000e-01) (4, 4, 5.00000000000000000000e-01) (4, 4, 5.00000000000000000000e-01) (4, 4, 5.00000000000000000000e-01) (4, 4, 5.00000000000000000000e-01) (4, 4, 5.00000000000000000000e-01) (4, 4, 5.00000000000000000000e-01) (4, 4, 5.00000000000000000000e-01) (4, 4, 5.00000000000000000000e-01) (4, 4, 5.00000000000000000000e-01) (4, 4, 5.00000000000000000000e-01) (4, 4, 5.00000000000000000000e-01) (4, 4, 5.00000000000000000000e-01) (4, 4, 5.00000000000000000000e-01) (4, 4, 5.00000000000000000000e-01) (4, 4, 5.00000000000000000000e-01) (4, 4, 5.00000000000000000000e-01) (4, 4, 5.00000000000000000000e-01) (4, 4, 5.00000000000000000000e-01) (4, 4, 5.00000000000000000000e-01) (4, 4, 5.00000000000000000000e-01) (4, 4, 5.00000000000000000000e-01) (4, 4, 5.00000000000000000000e-01) (0, 0, 0.00000000000000000000e+00) (31, 6, 5.00000000000000000000e-01) (31, 6, 5.00000000000000000000e-01) (31, 6, 5.00000000000000000000e-01) (31, 6, 5.00000000000000000000e-01) (0, 6, 0.00000000000000000000e+00) 
connections (connected_to_neuron, weight)=(0, 2.80521862977806897277e+01) (1, -5.89668459791433186012e+00) (2, -8.47392768732071566262e+00) (3, -3.49655333425037095907e+00) (0, 1.09141126237511243424e+00) (1, -1.62107239171775496800e+01) (2, -6.86720333095473112195e+00) (3, 3.56893888738408593397e+00) (0, 4.82870037407911123495e+00) (1, -6.64564691799080287105e-01) (2, -1.21768094829567896653e+01) (3, 3.00177323071543744604e+00) (0, -2.90179934561898011935e+00) (1, 2.12390068091305188602e+01) (2, -4.53706694995788311076e+01) (3, 7.93715510269882074113e+00) (0, 5.89815077607066307053e+00) (1, -3.39843829032193101014e+00) (2, 6.73202142730121466663e-01) (3, -9.22382886756674680306e-01) (0, 9.53286747583816485019e+00) (1, 5.44622033851941633742e+00) (2, 1.49222809969421739140e+01) (3, -3.80285219306577415566e+00) (0, -7.09301701014846042170e+00) (1, -4.34315496711949577957e+01) (2, 1.07777493927941421248e+01) (3, 9.76032404839973999344e-01) (0, 2.27102784718744530323e+01) (1, -6.69047906749747323119e+00) (2, -1.57429457596101585182e+01) (3, 5.81476574610827690037e-01) (0, 2.76167806034949991911e+00) (1, -2.95063934967594487802e+00) (2, -1.75008444050221747545e+01) (3, -4.21735943046281369639e-01) (0, -9.03508994412934285378e+00) (1, 4.83839643688658185283e+01) (2, -7.58987225477677629470e+00) (3, -8.61517996088597248772e-01) (0, -1.17338220481240940174e+00) (1, 5.08104414896382583500e-01) (2, -1.31128417367312035680e+01) (3, 9.29522686499879124966e-01) (0, -1.55349203880204722594e+01) (1, -1.45470717267225491121e+00) (2, -2.79718764628874294598e-01) (3, 1.70011638339921855589e+00) (0, -3.04190214874812525636e+01) (1, -1.86703111887916728406e+00) (2, 1.24689649363641272828e+01) (3, -3.16753588167071997717e-01) (0, 9.17191902835098815672e+00) (1, -9.52329757729088655083e+00) (2, -2.06252524609562577496e+01) (3, 2.29188333807537336639e+00) (0, -2.55104131177027859678e+00) (1, 1.37227791881420735365e+00) (2, 7.05592156080842025645e-01) (3, 9.68677656807494180669e-01) (0, -1.00043815183360731425e+01) (1, 5.49340881750409337769e+00) (2, -1.36093658676722498058e+02) (3, 1.16956753576887955148e+01) (0, -3.88760681995655232868e+01) (1, 1.92456031716325481895e+00) (2, -4.68766846613513266107e+00) (3, 7.21012585201603428686e+00) (0, 1.93061007023449593412e+00) (1, -4.94782701313864681225e+00) (2, -2.79011343531192013145e+00) (3, 1.49978456712727692413e-01) (0, -2.34581618279537593708e+01) (1, 1.42943426639903603537e+00) (2, -6.65411817219509771348e+00) (3, 7.70248294736020344686e+00) (0, -9.43540663071141949558e+00) (1, 1.73639957773817910081e-01) (2, -3.58334548254894542652e+01) (3, 3.72364249447446260533e+00) (0, 2.88557520359263932619e+01) (1, -2.99149933263165834774e+00) (2, -2.50495993334095956584e+01) (3, 9.16951024325984853647e+00) (0, -1.12783575244410343430e+01) (1, 7.41743728201487773077e+00) (2, -3.46597447392157391732e+01) (3, 1.31179373843577558034e+01) (0, 2.42440813976910298777e+01) (1, -5.80344191955052135512e+00) (2, -8.73344954568102593839e+01) (3, 2.32887934273422070319e+00) (0, 3.86134797935223250676e+00) (1, 1.00426545710828540869e+00) (2, -1.30928206949662806480e+00) (3, 8.72307215744828390314e-01) (0, -3.79619893816991833546e+01) (1, -3.26544279316085805931e+00) (2, 2.27707796688193191414e+01) (3, 1.58933185571965479577e-01) (0, 1.34380882866881120208e+03) (1, -1.47333737910310469488e+03) (2, -1.46678638685320606783e+03) (3, 3.00016224013317900354e-01) (0, 1.12565380734441400357e+00) (1, -5.95502328115031254185e+00) (2, -1.21666356216076110286e+01) (3, 5.59383442090515714540e+00) (0, 2.25670495491400870947e+01) (1, -4.19467671495699168105e+00) (2, -3.78219119292108629793e+00) (3, -3.26003054988897122968e+00) (0, 9.91871080377983105336e+01) (1, -8.69089244093318313844e+00) (2, -2.76653629093996720201e+01) (3, 2.13012099485329908788e+00) (0, -6.83095942305975256659e+01) (1, 6.97694023686542852403e+00) (2, 1.06400014831605216337e+00) (3, 6.66491441002903606261e+00) (4, -2.03489042376964324177e+00) (5, 9.33253526175803205245e-02) (6, -8.59087058625282451452e-02) (7, -7.16777673420995603548e-02) (8, 8.01883389702627014106e-02) (9, 7.78354740502921749190e-01) (10, -4.37114812230148086503e-01) (11, 2.79363088320833008460e-01) (12, 5.26799480001124309503e-01) (13, -5.16153185146111970205e-01) (14, -2.85385556541108642570e-01) (15, 1.11340984261527453647e+00) (16, 9.80938173172838101532e-02) (17, -8.85707727981185494182e-02) (18, 6.06263403152704327681e-01) (19, 2.70569636702328204791e-02) (20, 7.52907588915814995900e-01) (21, -1.28696901508814132153e-01) (22, 9.48882341760478587034e-01) (23, 1.67257157132149197887e-01) (24, -3.39342693517313875873e+00) (25, 2.51399940178037351046e-01) (26, -4.33590203856767508056e-03) (27, 2.73092556003073916315e-01) (28, -1.84246339884255738717e+00) (29, -4.13671676217013506438e-01) (30, -1.82384808452035085402e-01) (31, 3.86460561154729198563e+00) (32, 1.83936366056742711672e-01) (33, 1.15437256265968277158e-01) (34, 2.24932279129906431692e-01) (4, 1.15202439284012712051e+01) (5, -3.65696458630422904790e+00) (6, 4.34237570008080497885e-01) (7, -3.40345010723336161007e+00) (8, -3.54983580257226538635e-01) (9, -4.96541700998307700132e+00) (10, -1.31929496463280777618e+01) (11, 7.41451343307205856803e+00) (12, -8.05405800541524552472e-01) (13, -5.45512905874421138996e-01) (14, -1.84942054032878733238e+00) (15, 1.86107106461174787171e-01) (16, -1.34690126779117385070e+01) (17, -9.70911214073967165916e+00) (18, -1.94616419869890355798e+00) (19, 9.18425085133094754042e+00) (20, 8.41262689398415020037e+00) (21, 5.27169242438891738622e-01) (22, -1.04076761063961287235e+00) (23, -7.07703715808638555984e-01) (24, -4.25512699351578149720e-01) (25, -1.05087716425598176606e+00) (26, -9.13837150273026388447e+00) (27, -4.55314258083021505819e-01) (28, 1.75731802122334812566e+01) (29, 4.17909978348979027629e+00) (30, -8.46004931148993999379e-01) (31, 1.55639614590319663723e-01) (32, 2.80187159655659101531e+00) (33, -2.65840122605811179923e+00) (34, -1.49581797939479149706e-01) (4, -1.03442376645917044620e+00) (5, 1.15594796929470113867e+01) (6, 1.14656831446362725280e-01) (7, 4.30090471044164512904e+00) (8, -3.14686610166733105043e-01) (9, 2.29158522225872240963e-01) (10, 1.04600626189608192362e+00) (11, -6.87012210102830311875e-02) (12, 7.16772835037231659250e-01) (13, 3.63821335901064957241e+00) (14, 4.27422831848764117613e-01) (15, -1.36467909043557811266e+00) (16, 8.04414510598501131255e+00) (17, -7.53408944689423876184e-01) (18, -2.29643120758402430326e+00) (19, -2.18461439474225943558e-01) (20, -8.95361065236150333035e-01) (21, -3.76245837681675299180e+00) (22, -7.07108271019075806940e-01) (23, 2.06073829383077888888e-01) (24, 7.31252308793545524601e-01) (25, -5.22970456738079736425e+00) (26, -2.13501219040317824494e-01) (27, -6.17106395643285843278e-01) (28, -1.52940500135225554423e+00) (29, -5.83436262863535137768e+00) (30, 1.71828437278538737054e+00) (31, -1.71917974273894491599e-01) (32, -4.95792241929733534800e-01) (33, 1.34384483719679620473e-01) (34, -4.39907161031275972807e-01) (4, -2.38647965798345351729e+00) (5, -1.51432632973762277828e+01) (6, 5.04077180337082619843e+00) (7, -1.47839922497236320176e+00) (8, 1.49020493732879955040e+00) (9, 4.71938705301564509487e-01) (10, 1.68758653924349033559e+01) (11, -7.54548781926056677527e-01) (12, 6.75782361795537145355e+00) (13, -1.41313582352996558456e+00) (14, -4.23143203933725331467e+00) (15, 1.48721299393772543596e+01) (16, -8.03610591862326195667e+00) (17, 2.37284069661325851541e+01) (18, 4.61393311338531508792e-01) (19, -1.05548854127552900195e+01) (20, 3.80125610362687904598e+00) (21, 3.04799769179143176245e+00) (22, 2.68833027836618470019e+01) (23, -8.05439007059544853639e-01) (24, 1.53388000681691782923e+00) (25, 1.98318798581439703632e+00) (26, 1.19261991416195414217e+01) (27, 4.52670580138852196583e-01) (28, -2.51909718319278530529e+00) (29, 9.05981678265636425351e+00) (30, -2.05889741118822691135e+01) (31, -1.29783588244756220575e-01) (32, -1.72175684967798975356e-01) (33, -1.41865218216265773776e+01) (34, 2.21063869264873091858e-01) 
